1.034515 -3.567640 -5.043580 2.427168 -3.306721 5.932591 -0.140759 -0.911512 1.689283 1.895267 2.008596 -3.325136 0.845819 -2.723636 -3.287875 1.835565 1.022972 -4.609424 2.696755 -3.243946 -1.768804 -4.508615 3.001098 3.142624 -3.698473 4.438081 -1.039148 -3.950088 3.657763 1.685681 -2.198809 -5.830916 0.507814 4.982357 -5.648321 -0.529108 -0.768327 4.495070 -5.029639 3.514045 -2.842722 -3.852515 3.651414 -0.644647 -3.024056 4.001293 -2.959426 -3.655909 -2.698459 -1.158137 -1.651841 -0.571187 -1.015165 3.622082 -0.345093 -4.178526 -3.449335 5.106851 -5.382632 0.908312 -0.486212 -2.136283 -5.055770 3.917728 -3.273110 4.639204 -1.056495 -0.150631 -0.267743 3.583039 -1.131527 -5.290283 -4.824321 2.915362 -2.577755 3.092932 -4.776477 4.335227 -6.881837 1.774341 4.365719 -2.078145 -4.700254 -3.891313 -6.231511 -2.014477 2.479619 2.099770 6.321892 1.187411 1.051432 0.708056 1.033263 1.644196 0.733929 1.052721 1.106301 1.183527 0.828111 1.325704 -8.922233 -4.091097 -9.090107 13.069299 -2.715510 5.271697 -10.332397 11.468288 -10.382341 3.351664 
-1.651841 -0.571187 -1.015165 3.622082 -0.345093 -4.178526 -3.449335 5.106851 -5.382632 0.908312 -0.486212 -2.136283 -5.055770 3.917728 -3.273110 4.639204 -1.056495 -0.150631 -0.267743 3.583039 -1.131527 -5.290283 -4.824321 2.915362 -2.577755 3.092932 -4.776477 4.335227 -6.881837 1.774341 4.365719 -2.078145 -4.700254 -3.891313 -6.231511 -2.014477 2.479619 2.099770 6.321892 1.187411 1.051432 0.708056 1.033263 1.644196 0.733929 1.052721 1.106301 1.183527 0.828111 1.325704 -8.922233 -4.091097 -9.090107 13.069299 -2.715510 5.271697 -10.332397 11.468288 -10.382341 3.351664 -2.104280 0.965952 0.345801 2.280286 0.279342 -2.524529 -2.819983 2.386734 -0.340130 -0.173059 -0.822541 -3.096537 -3.172767 -1.574066 -0.713167 1.672977 0.736435 -0.924960 1.849812 -0.461835 -1.968485 1.774577 0.284450 -0.081680 1.612422 -1.394726 -4.176060 0.029570 -3.059152 -0.874468 -2.830920 0.728475 -5.241644 1.732764 0.544084 -0.738188 -0.666298 1.413299 -0.181302 -0.556321 -1.953483 -1.086695 0.348682 0.563211 0.926830 -4.708254 0.205337 1.609135 2.506823 2.086324 
-8.922233 -4.091097 -9.090107 13.069299 -2.715510 5.271697 -10.332397 11.468288 -10.382341 3.351664 -2.104280 0.965952 0.345801 2.280286 0.279342 -2.524529 -2.819983 2.386734 -0.340130 -0.173059 -0.822541 -3.096537 -3.172767 -1.574066 -0.713167 1.672977 0.736435 -0.924960 1.849812 -0.461835 -1.968485 1.774577 0.284450 -0.081680 1.612422 -1.394726 -4.176060 0.029570 -3.059152 -0.874468 -2.830920 0.728475 -5.241644 1.732764 0.544084 -0.738188 -0.666298 1.413299 -0.181302 -0.556321 -1.953483 -1.086695 0.348682 0.563211 0.926830 